23 46
B 0.0 0.0 2.464281018298693 -0.1471536937836543 0.0 1.9337663015999131 0.0 0.0 0.0 0.0 0.0 0.0 0.0 0.0 0.0 0.0 0.0 0.0 0.0 0.0 0.0 0.0 0.0 1.437808806937502 0.0 0.0 0.0 0.0 0.0 0.0 0.0 0.0 0.0 0.0 0.0 0.0 0.0 0.0 0.0 0.0 0.0 0.0 0.0 0.0 0.0 0.0
CH 0.0 0.0 0.0 1.437808806937502 0.0 0.0 0.0 0.0 0.0 0.0 0.0 0.0 0.0 0.0 0.0 0.0 0.0 0.0 0.0 0.0 0.0 0.0 0.0 1.437808806937502 0.0 0.0 0.0 0.0 0.0 0.0 0.0 0.0 0.0 0.0 0.0 0.0 0.0 0.0 0.0 0.0 0.0 0.0 0.0 0.0 0.0 0.0
D 0.0 0.0 0.0 -0.1471536937836543 0.0 1.9337663015999131 0.0 0.0 0.0 0.0 0.0 0.0 0.0 2.464281018298693 0.0 0.0 0.0 0.0 0.0 0.0 0.0 0.0 0.0 1.437808806937502 0.0 0.0 0.0 0.0 0.0 0.0 0.0 0.0 0.0 0.0 0.0 0.0 0.0 0.0 0.0 0.0 0.0 0.0 0.0 0.0 0.0 0.0
DH 0.0 0.0 0.0 1.437808806937502 0.0 0.0 0.0 0.0 0.0 0.0 0.0 0.0 0.0 0.0 0.0 0.0 0.0 0.0 0.0 0.0 0.0 0.0 0.0 1.437808806937502 0.0 0.0 0.0 0.0 0.0 0.0 0.0 0.0 0.0 0.0 0.0 0.0 0.0 0.0 0.0 0.0 0.0 0.0 0.0 0.0 0.0 0.0
F 0.0 0.0 2.464281018298693 -0.1471536937836543 0.0 1.9337663015999131 0.0 0.0 0.0 0.0 0.0 0.0 0.0 0.0 0.0 0.0 0.0 0.0 0.0 0.0 0.0 0.0 0.0 1.437808806937502 0.0 0.0 0.0 0.0 0.0 0.0 0.0 0.0 0.0 0.0 0.0 0.0 0.0 0.0 0.0 0.0 0.0 0.0 0.0 0.0 0.0 0.0
G 0.0 0.0 2.049243519019849 -0.5621911930624981 0.0 1.5187288023210697 0.0 0.0 0.0 0.0 0.0 0.0 0.0 2.049243519019849 0.0 0.0 0.0 0.0 0.0 0.0 0.0 0.0 0.0 1.437808806937502 0.0 0.0 0.0 0.0 0.0 0.0 0.0 0.0 0.0 0.0 0.0 0.0 0.0 0.0 0.0 0.0 0.0 0.0 0.0 0.0 0.0 0.0
HH 0.0 0.0 0.0 0.43780880693750196 0.0 0.0 0.0 0.0 0.0 0.0 0.0 0.0 0.0 3.049243519019849 0.0 0.0 0.0 0.0 0.0 0.0 0.0 0.0 0.0 1.437808806937502 0.0 0.0 0.0 0.0 0.0 0.0 0.0 0.0 0.0 0.0 0.0 0.0 0.0 0.0 0.0 0.0 0.0 0.0 0.0 0.0 0.0 0.0
JH 0.0 0.0 0.0 1.437808806937502 0.0 0.0 0.0 0.0 0.0 0.0 0.0 0.0 0.0 0.0 0.0 0.0 0.0 0.0 0.0 0.0 0.0 0.0 0.0 1.437808806937502 0.0 0.0 0.0 0.0 0.0 0.0 0.0 0.0 0.0 0.0 0.0 0.0 0.0 0.0 0.0 0.0 0.0 0.0 0.0 0.0 0.0 0.0
K 0.0 0.0 2.049243519019849 -0.5621911930624981 0.0 1.5187288023210697 0.0 0.0 0.0 0.0 0.0 0.0 0.0 2.049243519019849 0.0 0.0 0.0 0.0 0.0 0.0 0.0 0.0 0.0 0.43780880693750196 2.4118135984045574 0.0 0.0 0.0 0.0 0.0 0.0 0.0 0.0 0.0 0.0 0.0 0.0 0.0 0.0 0.0 0.0 0.0 0.0 0.0 0.0 0.0
L 0.0 0.0 0.0 1.437808806937502 0.0 0.0 0.0 0.0 0.0 0.0 0.0 0.0 0.0 0.0 0.0 0.0 0.0 0.0 0.0 0.0 0.0 0.0 0.0 -1.7321161945048107 0.24188859696224485 2.464281018298693 0.0 0.0 0.0 0.0 0.0 2.464281018298693 0.0 0.0 2.049243519019849 0.0 0.0 2.464281018298693 0.0 2.049243519019849 0.0 0.0 0.0 0.0 0.0 0.0
M 0.0 0.0 0.0 1.437808806937502 0.0 0.0 0.0 0.0 0.0 0.0 0.0 0.0 0.0 0.0 0.0 0.0 0.0 0.0 0.0 0.0 0.0 0.0 0.0 0.43780880693750196 2.4118135984045574 0.0 0.0 0.0 0.0 0.0 0.0 0.0 0.0 0.0 0.0 0.0 0.0 0.0 0.0 0.0 0.0 0.0 0.0 0.0 0.0 0.0
N 0.0 0.0 0.0 1.437808806937502 0.0 0.0 0.0 0.0 0.0 0.0 0.0 0.0 0.0 0.0 0.0 0.0 0.0 0.0 0.0 0.0 0.0 0.0 0.0 0.43780880693750196 2.4118135984045574 0.0 0.0 0.0 0.0 0.0 0.0 0.0 0.0 0.0 0.0 0.0 0.0 0.0 0.0 0.0 0.0 0.0 0.0 0.0 0.0 0.0
P 0.0 0.0 2.464281018298693 -0.1471536937836543 0.0 1.9337663015999131 0.0 0.0 0.0 0.0 0.0 0.0 0.0 0.0 0.0 0.0 0.0 0.0 0.0 0.0 0.0 0.0 0.0 0.43780880693750196 2.4118135984045574 0.0 0.0 0.0 0.0 0.0 0.0 0.0 0.0 0.0 0.0 0.0 0.0 0.0 0.0 0.0 0.0 0.0 0.0 0.0 0.0 0.0
R 0.0 0.0 0.0 1.437808806937502 0.0 0.0 0.0 0.0 0.0 0.0 0.0 0.0 0.0 0.0 0.0 0.0 0.0 0.0 0.0 0.0 0.0 0.0 0.0 -2.2626309112035905 0.0 1.9337663015999131 0.0 2.1968007074337073 0.0 2.5187288023210694 0.0 1.9337663015999131 1.9337663015999131 0.0 1.5187288023210697 0.0 0.0 1.9337663015999131 0.0 1.5187288023210697 1.9337663015999131 0.0 0.0 0.0 0.0 0.0
S 0.0 2.4118135984045574 0.24188859696224485 -2.369546115120102 2.0898855035171953 0.0 0.0 0.0 0.0 0.0 2.4118135984045574 2.4118135984045574 0.0 0.24188859696224485 0.0 0.0 0.0 0.0 0.0 0.0 2.4118135984045574 0.0 0.0 1.437808806937502 0.0 0.0 0.0 0.0 0.0 0.0 0.0 0.0 0.0 0.0 0.0 0.0 0.0 0.0 0.0 0.0 0.0 0.0 0.0 0.0 0.0 0.0
SH 0.0 0.0 0.0 0.43780880693750196 0.0 2.5187288023210694 0.0 0.0 0.0 0.0 0.0 0.0 0.0 0.0 0.0 0.0 0.0 0.0 0.0 0.0 0.0 0.0 0.0 1.437808806937502 0.0 0.0 0.0 0.0 0.0 0.0 0.0 0.0 0.0 0.0 0.0 0.0 0.0 0.0 0.0 0.0 0.0 0.0 0.0 0.0 0.0 0.0
T 0.0 0.0 0.0 0.11588071205013946 0.0 2.1968007074337073 0.0 0.0 0.0 0.0 0.0 0.0 0.0 1.7273154241324868 0.0 0.0 0.0 0.0 0.0 0.0 0.0 0.0 0.0 0.7008432127712957 2.0898855035171953 0.0 0.0 0.0 0.0 0.0 0.0 0.0 0.0 0.0 0.0 0.0 0.0 0.0 0.0 0.0 0.0 0.0 0.0 0.0 0.0 0.0
TH 0.0 0.0 0.0 -0.1471536937836543 0.0 1.9337663015999131 0.0 0.0 0.0 0.0 0.0 0.0 0.0 2.464281018298693 0.0 0.0 0.0 0.0 0.0 0.0 0.0 0.0 0.0 1.437808806937502 0.0 0.0 0.0 0.0 0.0 0.0 0.0 0.0 0.0 0.0 0.0 0.0 0.0 0.0 0.0 0.0 0.0 0.0 0.0 0.0 0.0 0.0
V 0.0 0.0 0.0 1.437808806937502 0.0 0.0 0.0 0.0 0.0 0.0 0.0 0.0 0.0 0.0 0.0 0.0 0.0 0.0 0.0 0.0 0.0 0.0 0.0 1.437808806937502 0.0 0.0 0.0 0.0 0.0 0.0 0.0 0.0 0.0 0.0 0.0 0.0 0.0 0.0 0.0 0.0 0.0 0.0 0.0 0.0 0.0 0.0
W 0.0 0.0 0.0 1.437808806937502 0.0 0.0 0.0 0.0 0.0 0.0 0.0 0.0 0.0 0.0 0.0 0.0 0.0 0.0 0.0 0.0 0.0 0.0 0.0 -1.7321161945048107 0.24188859696224485 0.0 0.0 1.7273154241324868 0.0 0.0 0.0 0.0 2.464281018298693 0.0 2.049243519019849 3.049243519019849 0.0 0.0 0.0 2.049243519019849 2.464281018298693 0.0 0.0 0.0 0.0 0.0
Y 0.0 0.0 0.0 1.437808806937502 0.0 0.0 0.0 0.0 0.0 0.0 0.0 0.0 0.0 0.0 0.0 0.0 0.0 0.0 0.0 0.0 0.0 0.0 0.0 1.437808806937502 0.0 0.0 0.0 0.0 0.0 0.0 0.0 0.0 0.0 0.0 0.0 0.0 0.0 0.0 0.0 0.0 0.0 0.0 0.0 0.0 0.0 0.0
Z 0.0 0.0 0.0 1.437808806937502 0.0 0.0 0.0 0.0 0.0 0.0 0.0 0.0 0.0 0.0 0.0 0.0 0.0 0.0 0.0 0.0 0.0 0.0 0.0 1.437808806937502 0.0 0.0 0.0 0.0 0.0 0.0 0.0 0.0 0.0 0.0 0.0 0.0 0.0 0.0 0.0 0.0 0.0 0.0 0.0 0.0 0.0 0.0
# 1.437808806937502 0.43780880693750196 -1.7321161945048107 0.0 0.7008432127712957 -2.2626309112035905 1.437808806937502 1.437808806937502 1.437808806937502 1.437808806937502 0.43780880693750196 0.43780880693750196 1.437808806937502 -1.7321161945048107 1.437808806937502 1.437808806937502 1.437808806937502 1.437808806937502 1.437808806937502 1.437808806937502 0.43780880693750196 1.437808806937502 1.437808806937502 0.0 -2.369546115120102 -0.1471536937836543 1.437808806937502 0.11588071205013946 1.437808806937502 0.43780880693750196 1.437808806937502 -0.1471536937836543 -0.1471536937836543 1.437808806937502 -0.5621911930624981 0.43780880693750196 1.437808806937502 -0.1471536937836543 1.437808806937502 -0.5621911930624981 -0.1471536937836543 1.437808806937502 1.437808806937502 1.437808806937502 1.437808806937502 1.437808806937502
