23 46
# -10.49078754395208 -0.10258833303189697 0.19327570615458584 0.10706169659575783 0.1899404346359071 -0.17475064841183585 -0.4381738731643086 0.1015357842068127 0.19335164355318868 -0.09960182870379136 0.19345415935617277 0.19344695835693193 0.1933983849646286 -0.2894315476243428 0.19346901876953607 -0.4716704165670062 0.09305397993004202 -0.17926377526985804 -0.1747048085374803 0.1933706002136642 0.19343183779261564 0.19322925729106927 0.19267069511711396 -10.533292009459538 0.15094295092885765 0.1507712406471291 0.1509509111373889 0.1474359691284498 0.15093727505462634 0.15090882346383788 0.1509221791286798 0.15084717804573128 0.0365182806418122 -0.6103005150205869 0.11007473879408855 0.009223727794885986 0.03448110675607055 -0.6699976025185007 0.15095970325793598 0.1508150723288373 -0.19281667654183132 0.15070675379010115 0.1508661347062069 -0.43446959691276343 0.1507247917836118 0.15016622960965675
B 3.1332123124427698 -7.275370257000375 -6.531839867994831 -7.557982179349367 -3.680153159469392 -7.113644046387971 -6.267192104456138 -7.184673507595235 -6.997275351030727 -7.66285252730749 -8.607859738571749 -8.359916197411376 -7.45116800684878 -7.813564433243054 -9.476922484853603 -7.024571233699095 -6.080503481570707 -7.428695113259385 -5.158618471658356 -7.157406321339997 -7.980726849516853 -6.326768150024132 -5.154610384242234 1.8226902445242548 -8.289856575450678 -6.447712578061397 -8.572468172902035 -3.596025869535958 -8.128130596498794 -7.569363244556432 -7.7936944819758915 -6.913148061097293 -8.271873089765483 2.3316606134705773 -7.582641057712139 -6.673891875911249 -8.134902636643973 1.8666454549357898 -9.019887711317088 -6.689526641576052 -7.750033497494014 -6.1731144294172395 -7.073279031406563 -5.817151173447274 -6.242640860090698 -5.070483094308799
CH 3.1211793174574334 -5.445087544314702 -4.701557155309158 -5.727699466663693 -1.8498704467837186 -5.283361333702297 -4.436909391770464 -5.354390794909562 -5.166992638345054 -5.832569814621817 -6.7775770258860755 -6.529633484725702 -5.620885294163106 -5.983281720557381 -7.646639772167929 -5.194288521013421 -4.2502207688850335 -5.598412400573711 -3.328335758972682 -5.327123608654324 -6.1504441368311795 -4.496485437338459 -3.3243276715565604 3.122395487418872 -6.542484982737 -4.700340985347719 -6.825096580188357 -1.8486542768222796 -6.3807590037851165 -5.821991651842754 -6.046322889262213 -5.165776468383615 -6.524501497051805 -4.830447573359888 -5.83526946499846 -4.92652028319757 -6.387531043930296 -5.342836538184151 -7.272516118603409 -4.942155048862373 -6.002661904780336 -4.425742836703561 -5.3259074386928855 -4.069779580733596 -4.4952692673770205 -3.3231115015951214
D 3.1337736192339887 -7.557428507869044 -6.813898118863501 -7.840040430218036 -3.9622114103380617 -7.39570229725664 -6.549250355324807 -7.466731758463904 -7.279333601899396 -7.944910778176159 -8.889917989440418 -8.641974448280045 -7.733226257717449 -8.095622684111724 -9.758980735722272 -7.306629484567764 -6.362561732439376 -7.710753364128054 -5.440676722527025 -7.439464572208667 -8.262785100385523 -6.608826400892801 -5.4366686351109035 2.678956167971788 -7.9258526039797905 -6.08370860659051 -8.208464201431148 -3.232021898065071 -7.764126625027908 -7.205359273085544 -7.429690510505004 -6.549144089626406 -7.907869118294596 -6.213815194602679 -7.218637086241252 -6.3098879044403615 -7.770898665173087 1.8172219211590575 -8.6558837398462 -6.325522670105165 -7.386029526023127 -5.809110457946352 -6.709275059935676 0.7911006015634904 -5.878636888619811 -4.706479122837912
DH 2.9119447563591105 -2.799300125368906 -2.0557697363633625 -3.0819120477178976 0.7959169721620771 -2.6375739147565014 -1.7911219728246683 -2.7086033759637655 -2.5212052193992576 -3.1867823956760204 -4.13178960694028 -3.883846065779906 -2.9750978752173105 -3.337494301611585 -5.000852353222133 -2.5485011020676254 -1.6044333499392378 -2.9526249816279155 -0.6825483400268864 -2.6813361897085284 -3.504656717885384 -1.850698018392663 -0.6785402526107646 2.9292241242719195 -3.8806343658398346 -2.038490368450553 -4.163245963291192 0.813196340074886 -3.718908386887951 -3.160141034945588 -3.3844722723650476 -2.503925851486449 -3.8626508801546393 -2.1685969564627228 -3.173418848101295 -2.264669666300405 -3.7256804270331303 -2.680985921286985 -4.610665501706244 -2.280304431965208 -3.34081128788317 -1.7638922198063958 -2.66405682179572 -1.4079289638364307 -1.8334186504798546 -0.6612608846979559
F 3.1328122729891366 -7.114038641627893 -6.370508252622349 -7.396650563976884 -3.5188215440969097 -6.952312431015488 -6.105860489083655 -7.023341892222753 -6.835943735658245 -7.501520911935008 -8.446528123199267 -8.198584582038892 -7.289836391476298 -7.652232817870572 -9.31559086948112 -6.863239618326612 -5.919171866198225 -7.267363497886903 -4.997286856285873 -6.996074705967515 -7.819395234144371 -6.16543653465165 -4.993278768869752 1.5414855419856488 -8.33717275199694 -6.4950287546076595 -8.619784349448297 -3.643342046082221 -8.175446773045056 -7.6166794211026945 -7.841010658522154 -6.9604642376435555 -8.319189266311746 2.5930220159982125 -7.629957234258401 -6.721208052457511 -8.182218813190238 1.591425179217121 -9.06720388786335 -6.736842818122314 -7.797349674040277 -6.220430605963502 -7.120595207952825 -5.864467349993537 -6.289957036636961 -5.117799270855063
G 3.1308093596353754 -6.5572457514485025 -5.813715362442959 -6.8398576737974945 -2.96202865391752 -6.395519540836098 -5.549067598904265 -6.4665490020433625 -6.2791508454788545 -6.944728021755617 -7.889735233019877 -7.641791691859503 -6.733043501296907 -7.095439927691182 -8.75879797930173 -6.306446728147223 -5.362378976018834 -6.7105706077075125 -4.440493966106484 -6.439281815788125 -7.26260234396498 -5.60864364447226 -4.436485878690362 1.1142144367921505 -7.654568690506133 -5.812424693116852 -7.93718028795749 -2.960737984591413 -7.49284271155425 -6.934075359611887 -7.158406597031346 -6.277860176152748 -7.636585204820938 2.1930353916588934 -6.947353172767594 -6.0386039909667035 -7.499614751699429 2.251226627679939 -8.384599826372543 -6.054238756631507 -7.114745612549469 -5.537826544472694 -6.437991146462019 0.3382216831795857 -5.607352975146154 -4.435195209364255
HH 3.1317490690613576 -6.780650635106823 -6.037120246101279 -7.063262557455814 -3.1854335375758396 -6.618924424494418 -5.772472482562585 -6.689953885701683 -6.502555729137175 -7.1681329054139376 -8.113140116678197 -7.865196575517823 -6.956448384955228 -7.318844811349502 -8.982202862960051 -6.529851611805542 -5.5857838596771545 -6.933975491365832 -4.663898849764803 -6.662686699446445 -7.4860072276233005 -5.83204852813058 -4.659890762348682 1.9786485612940365 -8.247325626514465 -6.405181629125185 -8.529937223965822 -3.553494920599745 -8.085599647562582 -7.526832295620219 -7.751163533039679 -6.87061711216108 -8.22934214082927 -6.535288217137354 -7.5401101087759255 -6.631360926975036 -8.092371687707761 -7.047677181961617 -8.977356762380875 -6.646995692639839 -7.707502548557802 -6.130583480481027 -7.0307480824703505 2.754662098002495 -6.2001099111544855 -5.027952145372587
JH 3.1264832116542856 -5.905295070552348 -5.161764681546804 -6.187906992901339 -2.3100779730213645 -5.743568859939943 -4.89711691800811 -5.814598321147208 -5.6272001645827 -6.2927773408594625 -7.237784552123721 -6.989841010963348 -6.081092820400752 -6.443489246795027 -8.106847298405576 -5.654496047251067 -4.7104282951226795 -6.058619926811357 -3.788543285210328 -5.78733113489197 -6.6106516630688255 -4.956692963576105 -3.7845351977942063 3.127250628368512 -7.003141262221859 -5.160997264832577 -7.285752859673216 -2.309310556307138 -6.841415283269975 -6.282647931327611 -6.506979168747072 -5.626432747868473 -6.9851577765366635 -5.2911038528447465 -6.295925744483319 -5.387176562682429 -6.8481873234151545 -5.803492817669009 -7.733172398088268 -5.402811328347232 -6.463318184265194 -4.88639911618842 -5.786563718177743 -4.5304358602184545 -4.955925546861879 -3.78376778107998
K 2.4973351505424146 -7.77883926292849 -7.035308873922946 -8.061451185277482 -4.183622165397507 -7.6171130523160855 -6.7706611103842524 -7.68814251352335 -7.500744356958842 -8.166321533235605 -9.111328744499863 -8.86338520333949 -7.954637012776894 -8.317033439171169 -9.980391490781717 2.381283374921609 -6.583972487498822 -7.9321641191875 -5.6620874775864705 -7.660875327268112 -8.484195855444968 -6.830237155952247 -5.658079390170348 1.5378760141860026 -8.96513958042415 -7.12299558303487 -9.247751177875507 -4.2713088745094305 -8.803413601472267 -8.244646249529904 -8.468977486949363 -7.588431066070766 -8.947156094738956 1.6635141026216471 -8.25792406268561 -7.349174880884721 -8.810185641617446 1.3123658655419095 -9.69517071629056 -7.364809646549524 -8.425316502467487 -6.848397434390712 -7.748562036380036 2.2330883740465466 -6.917923865064171 -5.745766099282272
L 0.3459467947264988 1.3201248801540544 -6.845824510384546 -7.871966821739081 -3.994137801859106 1.7905286698403564 1.5543899259420628 -7.49865814998495 -7.311259993420442 0.9397791039714819 -8.921844380961463 -8.673900839801089 -7.765152649238494 1.0004340073300337 -9.790907127243317 0.590319795260922 -6.394488123960421 -7.7426797556491 -5.47260311404807 -7.471390963729712 -8.294711491906567 -6.6407527924138465 -5.468595026631948 3.133842115953867 -8.60723667798051 -6.765092680591228 -8.889848275431866 -3.913405972065789 -8.445510699028626 -7.886743347086263 -8.111074584505722 -7.230528163627124 -8.589253192295315 -6.895199268603398 -7.90002116024197 -6.99127197844108 -8.452282739173805 -7.40758823342766 -9.33726781384692 -7.006906744105883 -8.067413600023846 -6.490494531947071 -7.390659133936395 -6.134531275977106 -6.56002096262053 -5.387863196838631
M 2.8647366779540904 -6.7957621616157455 -6.0522317726102015 -7.0783740839647376 -3.2005450640847624 -6.634035951003341 -5.787584009071508 -6.7050654122106055 -6.5176672556460975 -7.18324443192286 -8.12825164318712 -7.880308102026746 -6.97155991146415 -7.3339563378584245 -8.997314389468974 1.6812592453502238 -5.600895386186077 -6.9490870178747555 -4.679010376273726 -6.677798225955367 -7.501118754132223 -5.847160054639502 -4.675002288857605 3.133377711955942 -8.35975033981882 -6.517606342429539 -8.642361937270177 -3.6659196339040996 -8.198024360866937 -7.639257008924574 -7.863588246344033 -6.983041825465435 -8.341766854133626 -6.647712930441708 -7.6525348220802805 -6.74378564027939 -8.204796401012116 -7.160101895265971 -9.08978147568523 -6.759420405944194 -7.819927261862156 -6.243008193785381 -7.1431727957747055 -5.887044937815416 -6.3125346244588405 -5.140376858676942
N 2.379182629356553 -6.2717160174131905 -5.5281856284076465 -6.5543279397621825 -2.676498919882208 -6.109989806800786 -5.263537864868953 -6.1810192680080505 -5.9936211114435425 -6.659198287720305 -7.604205498984565 -7.356261957824191 -6.447513767261595 -6.80991019365587 -8.473268245266418 2.4901700929350428 -5.076849241983522 -6.4250408736722004 -4.154964232071171 -6.153752081752813 -6.977072609929669 -5.323113910436948 -4.15095614465505 3.130250670163517 -7.454080617656346 -5.611936620267065 -7.736692215107704 -2.760249911741626 -7.292354638704463 -6.733587286762099 -6.95791852418156 -6.077372103302961 -7.4360971319711515 -5.7420432082792345 -6.746865099917807 -5.838115918116917 -7.2991266788496425 -6.254432173103497 -8.184111753522755 -5.85375068378172 -6.914257539699682 -5.337338471622908 -6.237503073612231 -4.9813752156529425 -5.406864902296366 -4.2347071365144675
P 2.4883201229850376 -7.648846663478616 -6.905316274473072 -7.931458585827608 -4.053629565947633 -7.487120452866211 -6.640668510934378 -7.558149914073476 -7.370751757508968 -8.03632893378573 -8.98133614504999 -8.733392603889616 -7.824644413327021 -8.187040839721295 -9.850398891331844 2.3909160130680385 -6.453979888048948 -7.802171519737626 -5.532094878136596 -7.530882727818239 -8.354203255995094 -6.700244556502373 -5.528086790720475 1.5277695219414502 -8.936128259683716 -7.093984262294435 -9.218739857135073 -4.242297553768997 -8.774402280731833 -8.21563492878947 -8.43996616620893 -7.559419745330331 -8.918144773998522 1.903892232656198 -8.228912741945177 -7.3201635601442865 -8.781174320877012 2.4556481005498108 -9.666159395550126 -7.33579832580909 -8.396305181727051 -6.819386113650277 -7.719550715639602 -6.463422857680313 -6.888912544323737 -5.716754778541838
R 0.056107325435453964 0.6249673398261354 -7.58835585700194 -0.071072087770476 -4.7366691484765004 0.5587894512661338 1.3824387801699773 -8.241189496602344 -8.053791340037835 0.358488485098613 -9.664375727578857 -9.416432186418483 -8.507683995855889 1.322047493430515 -10.533438473860711 -8.081087222706202 0.14735552639864954 1.2547707595733193 1.266364901628837 -8.213922310347106 -9.03724283852396 -7.3832841390312405 -6.211126373249342 3.134801095025908 -9.475355304603685 -7.633211307214404 -9.757966902055044 -4.781524598688965 -9.313629325651801 -8.754861973709438 -8.9791932111289 -8.098646790250301 -9.45737181891849 -7.763317895226574 -8.768139786865145 -7.859390605064256 -9.32040136579698 -8.275706860050835 -10.205386440470095 -7.875025370729059 -8.935532226647021 -7.358613158570247 -8.258777760559571 -7.0026499026002815 -7.428139589243706 -6.255981823461807
S 3.134393948735549 -8.004236508903084 -7.26070611989754 -8.286848431252075 -4.409019411372101 -7.842510298290679 -6.996058356358846 -7.913539759497944 -7.726141602933436 -8.391718779210198 -9.336725990474458 -9.088782449314083 -8.180034258751489 -8.542430685145764 -10.205788736756311 -7.753437485601803 -6.809369733473416 -8.157561365162094 -5.887484723561064 -7.886272573242706 -8.709593101419562 -7.055634401926841 -5.883476636144942 0.5357575034480269 -8.956908209690516 -7.1147642123012345 -9.239519807141873 -4.263077503775796 -8.795182230738632 -8.23641487879627 -8.460746116215729 -7.5801996953371304 0.9703988905434973 0.6840048710363267 -0.023470308287287734 1.1701435768958668 0.9870093823615618 -7.7572597651376665 -9.686939345556926 -7.35657827581589 1.9600381179713982 -6.840166063657077 -7.740330665646401 0.9803159810640549 -6.909692494330536 -5.7375347285486376
SH 3.124237383825759 -5.683887373142739 -4.940356984137195 -5.96649929549173 -2.088670275611756 -5.522161162530335 -4.675709220598502 -5.593190623737598 -5.405792467173091 -6.071369643449853 -7.016376854714113 -6.768433313553739 -5.859685122991143 -6.222081549385418 -7.885439600995967 -5.433088349841459 -4.489020597713071 -5.837212229401748 -3.5671355878007196 -5.565923437482361 -6.389243965659217 -4.735285266166496 -3.563127500384598 2.6937048900080147 -6.419617467499189 -4.577473470109908 -6.702229064950546 -1.7257867615844689 -6.257891488547306 -5.699124136604943 -5.923455374024402 -5.042908953145804 -6.401633981813994 -4.707580058122077 -5.7124019497606495 -4.803652767959759 -6.264663528692485 2.064405974030125 -7.149648603365598 -4.819287533624562 -5.879794389542525 -4.30287532146575 -5.203039923455075 -3.9469120654957854 -4.37240175213921 -3.200243986357311
T 1.7446124074547196 -7.780387456561072 -7.036857067555528 -8.062999378910064 -4.185170359030089 -7.618661245948667 -6.772209304016834 -7.689690707155932 -7.502292550591424 -8.167869726868187 -9.112876938132446 -8.864933396972072 -7.956185206409477 -8.31858163280375 -9.9819396844143 2.847534816445459 -6.5855206811314035 -7.933712312820082 -5.663635671219052 -7.662423520900695 -8.48574404907755 -6.831785349584829 -5.659627583802931 1.7823956294038694 -8.406800604592112 -6.564656607202831 -8.689412202043469 -3.7129698986773922 -8.245074625640228 -7.6863072736978655 -7.910638511117326 -7.030092090238727 -8.388817118906918 -6.694763195215 -7.699585086853573 -6.790835905052682 -8.251846665785408 2.5328297018005492 -9.136831740458522 -6.806470670717486 -7.866977526635448 -6.290058458558674 -7.190223060547997 1.4870075177029283 -6.359584889232132 -5.187427123450234
TH 3.116696862780926 -5.174907363490024 -4.43137697448448 -5.457519285839015 -1.5796902659590406 -5.013181152877619 -4.166729210945786 -5.084210614084883 -4.896812457520376 -5.562389633797138 -6.507396845061398 -6.259453303901024 -5.350705113338428 -5.713101539732703 -7.376459591343251 -4.924108340188743 -3.9800405880603553 -5.328232219749033 -3.0581555781480043 -5.056943427829646 -5.880263956006502 -4.226305256513781 -3.0541474907318826 1.82283763620821 -6.10084092291912 -4.258696925529839 -6.383452520370477 -1.4070102170043997 -5.939114943967236 -5.380347592024873 -5.6046788294443335 -4.724132408565735 -6.082857437233925 -4.388803513542008 -5.393625405180581 -4.48487622337969 -5.945886984112416 2.58030688392803 -6.830872058785529 -4.500510989044494 -5.561017844962455 -3.984098776885681 -4.884263378875005 1.1562263288574022 -4.05362520755914 -2.8814674417772412
V 3.1278115876484787 -6.0641166215279005 -5.3205862325223565 -6.346728543876892 -2.4688995239969174 -5.902390410915496 -5.055938468983663 -5.9734198721227605 -5.7860217155582525 -6.451598891835015 -7.396606103099274 -7.148662561938901 -6.2399143713763054 -6.6023107977705795 -8.265668849381129 -5.81331759822662 -4.869249846098232 -6.2174414777869105 -3.947364836185881 -5.946152685867522 -6.769473214044378 -5.115514514551657 -3.943356748769759 3.128466271236404 -7.162075546323712 -5.319931548934431 -7.444687143775069 -2.468244840408992 -7.000349567371829 -6.441582215429466 -6.665913452848926 -5.785367031970327 -7.144092060638518 -5.450038136946601 -6.4548600285851725 -5.546110846784282 -7.007121607517008 -5.962427101770863 -7.892106682190121 -5.561745612449086 -6.622252468367048 -5.045333400290273 -5.945498002279598 -4.689370144320309 -5.1148598309637325 -3.942702065181834
W 0.7403122527958867 -6.610152366802233 -5.866621977796689 -0.6485164856113477 -3.01493526927125 -6.448426156189829 -0.08188924257568025 2.0098267051164638 -6.332057460832585 1.7278879153579452 -7.942641848373607 -7.694698307213233 -6.785950116650638 -7.148346543044912 -8.811704594655462 1.1051654452502142 -5.415285591372565 0.6576254972303937 0.2909612683129043 -6.492188431141855 -7.315508959318711 -5.66155025982599 -4.489392494044092 3.132403252951067 -7.981520330364857 -6.1393763329755755 -8.264131927816214 -3.2876896244501363 -7.819794351412972 -7.26102699947061 -7.48535823689007 -6.6048118160114715 -7.963536844679662 -6.269482920987745 -7.274304812626317 -6.365555630825427 -7.826566391558153 -6.7818718858120075 -8.711551466231265 -6.38119039649023 -7.441697252408192 -5.864778184331418 -6.764942786320741 -5.508814928361453 -5.934304615004876 -4.762146849222978
Y 3.1179486825926315 -5.243200012345287 -4.499669623339743 -5.5258119346942784 -1.6479829148143041 -5.081473801732883 -4.23502185980105 -5.152503262940147 -4.965105106375639 -5.630682282652402 -6.575689493916661 -6.327745952756287 -5.418997762193692 -5.781394188587966 -7.444752240198515 -4.992400989044007 -4.048333236915619 -5.396524868604297 -3.1264482270032676 -5.125236076684909 -5.948556604861765 -4.294597905369044 -3.122440139587146 3.119437124960088 -6.340325178361568 -4.498181180972287 -6.622936775812925 -1.6464944724468473 -6.178599199409684 -5.619831847467321 -5.844163084886781 -4.963616664008183 -6.322341692676373 -4.628287768984456 -5.6331096606230275 -4.724360478822138 -6.185371239554864 -5.140676733808719 -7.070356314227977 -4.739995244486941 -5.800502100404904 -4.223583032328129 -5.123747634317453 -3.867619776358164 -4.293109463001588 -3.120951697219689
Z 3.079883975901061 -4.108548391081005 -3.3650180020754608 -4.391160313429996 -0.5133312935500215 -3.9468221804686 -3.100370238536767 -4.017851641675865 -3.8304534851113563 -4.49603066138812 -5.4410378726523785 -5.193094331492005 -4.28434614092941 -4.646742567323684 -6.310100618934232 -3.857749367779724 -2.9136816156513365 -4.261873247340014 -1.9917966057389849 -3.990584455420627 -4.8139049835974825 -3.1599462841047616 -1.9877885183228634 3.084520453861949 -5.202525521503854 -3.3603815241145725 -5.485137118955211 -0.5086948155891333 -5.04079954255197 -4.4820321906096074 -4.706363428029067 -3.8258170071504685 -5.184542035818659 -3.4904881121267417 -4.495310003765314 -3.586560821964424 -5.04757158269715 -4.0028770769510045 -5.932556657370263 -3.6021955876292275 -4.6627024435471895 -3.085783375470415 -3.985947977459739 -2.72982011950045 -3.155309806143874 -1.9831520403619751
