23 46
# -3.844098937792095 -0.6162011008952536 0.4169539711182116 -0.6162011008952538 0.4169539711182116 -0.6162011008952536 -0.8726942046546113 -0.24292911580122056 0.4169539711182116 -0.8861445419751588 0.4790476669849438 0.4523733398061457 0.4523733398061457 -0.6141357034775465 0.48135765212250525 -2.0101922134317083 -0.24292911580122056 -0.431677057095331 -0.6162011008952538 0.4169539711182116 0.47904766698494367 0.4169539711182116 0.4169539711182116 -3.9878258598016667 0.3201689934401802 0.27322704910864004 0.3201689934401802 0.27322704910864004 0.3201689934401802 0.32587892084669806 0.30864641779657453 0.27322704910864004 -0.3592862634907788 -1.7395327749238292 -0.38665603781079255 -0.38665603781079255 -0.3622878691826034 -2.026286629992341 0.338001460377543 0.3086464177965747 -0.17987494229401624 0.3201689934401802 0.27322704910864004 -1.7116510706009525 0.27322704910864004 0.27322704910864004
B 2.7817746016041114 -0.8768379638133316 -0.8768379638133322 -0.8768379638133317 -0.8768379638133322 -0.8768379638133316 -0.8768379638133317 -0.8768379638133318 -0.8768379638133322 -1.5706707803274595 -3.0752811246971468 -1.5706707803274595 -1.5706707803274595 -1.5706707803274595 -3.4430527437784324 -1.4370414684862123 -0.8768379638133318 -1.3882121339452438 -0.8768379638133317 -0.8768379638133322 -3.0752811246971463 -0.8768379638133322 -0.8768379638133322 0.5264003465825249 -2.0521152024899125 -0.9525888369757078 -2.0521152024899125 -0.9525888369757078 -2.0521152024899125 -2.339911475821164 -1.6464216534898348 -0.9525888369757078 -2.339911475821164 2.270416799831514 -0.9525888369757076 -0.9525888369757076 -2.052115202489912 1.9158673033381235 -3.592919116579258 -1.6464216534898348 -1.869702275601325 -2.0521152024899125 -0.9525888369757078 -1.0705242768082606 -0.9525888369757078 -0.9525888369757078
CH 2.2872799711279757 -0.22486428444372208 -0.22486428444372306 -0.22486428444372222 -0.22486428444372306 -0.22486428444372208 -0.22486428444372236 -0.2248642844437225 -0.22486428444372306 -0.9186971009578503 -2.4233074453275374 -0.9186971009578502 -0.9186971009578502 -0.9186971009578502 -2.791079064408823 -0.7850677891166028 -0.2248642844437225 -0.7362384545756344 -0.22486428444372222 -0.22486428444372306 -2.423307445327537 -0.22486428444372306 -0.22486428444372306 2.374214682997277 -1.2374559380886263 -0.13792957257442157 -1.2374559380886263 -0.13792957257442157 -1.2374559380886263 -1.5252522114198779 -0.8317623890885485 -0.13792957257442157 -1.5252522114198777 -0.3895487859841725 -0.13792957257442157 -0.13792957257442157 -1.237455938088626 -0.4006103428207844 -2.7782598521779716 -0.8317623890885485 -1.0550430112000386 -1.2374559380886263 -0.13792957257442157 -0.2558650124069742 -0.13792957257442157 -0.13792957257442157
D 2.7817746016041114 -0.8768379638133316 -0.8768379638133322 -0.8768379638133317 -0.8768379638133322 -0.8768379638133316 -0.8768379638133317 -0.8768379638133318 -0.8768379638133322 -1.5706707803274595 -3.0752811246971468 -1.5706707803274595 -1.5706707803274595 -1.5706707803274595 -3.4430527437784324 -1.4370414684862123 -0.8768379638133318 -1.3882121339452438 -0.8768379638133317 -0.8768379638133322 -3.0752811246971463 -0.8768379638133322 -0.8768379638133322 0.5263381756185735 -2.0521773734538638 -0.9526510079396591 -2.0521773734538633 -0.9526510079396591 -2.0521773734538638 -2.3399736467851153 -1.6464838244537858 -0.9526510079396591 -2.3399736467851153 -1.2042702213494099 -0.9526510079396588 -0.9526510079396588 -2.0521773734538633 1.9158051323741723 -3.5929812875432092 -1.646483824453786 -1.8697644465652763 -2.0521773734538633 -0.9526510079396591 2.274922028029355 -0.9526510079396591 -0.9526510079396591
DH 2.2872799711279757 -0.22486428444372208 -0.22486428444372306 -0.22486428444372222 -0.22486428444372306 -0.22486428444372208 -0.22486428444372236 -0.2248642844437225 -0.22486428444372306 -0.9186971009578503 -2.4233074453275374 -0.9186971009578502 -0.9186971009578502 -0.9186971009578502 -2.791079064408823 -0.7850677891166028 -0.2248642844437225 -0.7362384545756344 -0.22486428444372222 -0.22486428444372306 -2.423307445327537 -0.22486428444372306 -0.22486428444372306 2.374214682997277 -1.2374559380886263 -0.13792957257442157 -1.2374559380886263 -0.13792957257442157 -1.2374559380886263 -1.5252522114198779 -0.8317623890885485 -0.13792957257442157 -1.5252522114198777 -0.3895487859841725 -0.13792957257442157 -0.13792957257442157 -1.237455938088626 -0.4006103428207844 -2.7782598521779716 -0.8317623890885485 -1.0550430112000386 -1.2374559380886263 -0.13792957257442157 -0.2558650124069742 -0.13792957257442157 -0.13792957257442157
F 2.7817746016041114 -0.8768379638133316 -0.8768379638133322 -0.8768379638133317 -0.8768379638133322 -0.8768379638133316 -0.8768379638133317 -0.8768379638133318 -0.8768379638133322 -1.5706707803274595 -3.0752811246971468 -1.5706707803274595 -1.5706707803274595 -1.5706707803274595 -3.4430527437784324 -1.4370414684862123 -0.8768379638133318 -1.3882121339452438 -0.8768379638133317 -0.8768379638133322 -3.0752811246971463 -0.8768379638133322 -0.8768379638133322 0.5264003465825249 -2.0521152024899125 -0.9525888369757078 -2.0521152024899125 -0.9525888369757078 -2.0521152024899125 -2.339911475821164 -1.6464216534898348 -0.9525888369757078 -2.339911475821164 2.270416799831514 -0.9525888369757076 -0.9525888369757076 -2.052115202489912 1.9158673033381235 -3.592919116579258 -1.6464216534898348 -1.869702275601325 -2.0521152024899125 -0.9525888369757078 -1.0705242768082606 -0.9525888369757078 -0.9525888369757078
G 2.8605793623451756 -1.091539403810037 -1.091539403810038 -1.0915394038100372 -1.091539403810038 -1.091539403810037 -1.0915394038100372 -1.0915394038100374 -1.091539403810038 -1.785372220324165 -3.289982564693852 -1.785372220324165 -1.785372220324165 -1.785372220324165 -3.657754183775138 -1.6517429084829178 -1.0915394038100374 -1.6029135739419496 -1.0915394038100372 -1.091539403810038 -3.289982564693852 -1.091539403810038 -1.091539403810038 0.15946347661587448 -2.1625589686972053 -1.0630326031830006 -2.162558968697205 -1.0630326031830006 -2.1625589686972053 -2.450355242028457 -1.7568654196971274 -1.0630326031830006 -2.4503552420284564 1.8825625114942701 -1.0630326031830004 -1.0630326031830004 -2.162558968697205 1.5321925832172245 -3.7033628827865503 -1.7568654196971274 -1.9801460418086176 -2.162558968697205 -1.0630326031830006 1.8885373251983792 -1.0630326031830006 -1.0630326031830006
HH 2.638326834371298 -0.6030696064024614 -0.6030696064024623 -0.6030696064024617 -0.6030696064024623 -0.6030696064024614 -0.6030696064024619 -0.6030696064024619 -0.6030696064024623 -1.2969024229165895 -2.8015127672862765 -1.2969024229165895 -1.2969024229165895 -1.2969024229165895 -3.1692843863675626 -1.1632731110753423 -0.6030696064024619 -1.1144437765343738 -0.6030696064024617 -0.6030696064024623 -2.8015127672862765 -0.6030696064024623 -0.6030696064024623 0.9457768146638044 -2.006010719502666 -0.9064843539884614 -2.0060107195026657 -0.9064843539884614 -2.006010719502666 -2.2938069928339178 -1.6003171705025883 -0.9064843539884614 -2.2938069928339173 -1.1581035673982125 -0.9064843539884613 -0.9064843539884613 -2.0060107195026657 -1.169165124234824 -3.5468146335920117 -1.6003171705025883 -1.8235977926140785 -2.0060107195026657 -0.9064843539884614 2.7147368135839325 -0.9064843539884614 -0.9064843539884614
JH 2.2872799711279757 -0.22486428444372208 -0.22486428444372306 -0.22486428444372222 -0.22486428444372306 -0.22486428444372208 -0.22486428444372236 -0.2248642844437225 -0.22486428444372306 -0.9186971009578503 -2.4233074453275374 -0.9186971009578502 -0.9186971009578502 -0.9186971009578502 -2.791079064408823 -0.7850677891166028 -0.2248642844437225 -0.7362384545756344 -0.22486428444372222 -0.22486428444372306 -2.423307445327537 -0.22486428444372306 -0.22486428444372306 2.374214682997277 -1.2374559380886263 -0.13792957257442157 -1.2374559380886263 -0.13792957257442157 -1.2374559380886263 -1.5252522114198779 -0.8317623890885485 -0.13792957257442157 -1.5252522114198777 -0.3895487859841725 -0.13792957257442157 -0.13792957257442157 -1.237455938088626 -0.4006103428207844 -2.7782598521779716 -0.8317623890885485 -1.0550430112000386 -1.2374559380886263 -0.13792957257442157 -0.2558650124069742 -0.13792957257442157 -0.13792957257442157
K 1.430426471413822 -1.8365271104039134 -1.836527110403914 -1.8365271104039136 -1.836527110403914 -1.8365271104039134 -1.8365271104039136 -1.8365271104039136 -1.836527110403914 -2.5303599269180417 -4.034970271287729 -2.5303599269180417 -2.5303599269180417 -2.5303599269180412 -4.402741890369014 2.7903059677815394 -1.8365271104039136 -2.347901280535826 -1.8365271104039136 -1.836527110403914 -4.034970271287729 -1.836527110403914 -1.836527110403914 0.21424392443325718 -2.7881610000734027 -1.688634634559198 -2.7881610000734027 -1.688634634559198 -2.7881610000734027 -3.0759572734046543 -2.382467451073325 -1.688634634559198 -3.0759572734046543 1.982426451933185 -1.6886346345591978 -1.6886346345591978 -2.7881610000734027 1.623134758557339 -4.328964914162748 -2.382467451073325 -2.6057480731848153 -2.7881610000734027 -1.688634634559198 1.9854016999685655 -1.688634634559198 -1.688634634559198
L -1.2438457808433283 1.4797754244246648 -1.9948494257923084 -1.994849425792308 -1.9948494257923084 1.4797754244246648 1.2023649022947132 -1.994849425792308 -1.9948494257923084 1.2339980575956984 -4.193292586676123 -2.688682242306436 -2.688682242306436 1.5167208566881287 -4.5610642057574085 -0.010923200786041776 -1.994849425792308 -2.50622359592422 -1.994849425792308 -1.9948494257923084 -4.193292586676122 -1.9948494257923084 -1.9948494257923084 3.023057484878086 -2.8491499929583637 -1.749623627444159 -2.8491499929583637 -1.749623627444159 -2.8491499929583637 -3.1369462662896153 -2.443456443958286 -1.749623627444159 -3.1369462662896153 -2.00124284085391 -1.749623627444159 -1.749623627444159 -2.8491499929583637 -2.0123043976905217 -4.389953907047709 -2.443456443958286 -2.6667370660697762 -2.8491499929583637 -1.749623627444159 -1.8675590672767117 -1.749623627444159 -1.749623627444159
M 1.1527670808243076 -0.6994940878279576 -0.6994940878279584 -0.6994940878279579 -0.6994940878279584 -0.6994940878279576 -0.699494087827958 -0.6994940878279581 -0.6994940878279584 -1.393326904342086 -2.8979372487117727 -1.3933269043420857 -1.3933269043420857 -1.3933269043420857 -3.265708867793059 2.4794590149041085 -0.6994940878279581 -1.21086825795987 -0.6994940878279579 -0.6994940878279584 -2.8979372487117727 -0.6994940878279584 -0.6994940878279584 2.697061082067472 -1.643861724220493 -0.5443353587062884 -1.643861724220493 -0.5443353587062884 -1.643861724220493 -1.9316579975517447 -1.2381681752204152 -0.5443353587062884 -1.9316579975517443 -0.7959545721160391 -0.5443353587062881 -0.5443353587062881 -1.643861724220493 -0.8070161289526511 -3.184665638309838 -1.2381681752204152 -1.4614487973319055 -1.643861724220493 -0.5443353587062884 -0.6622707985388409 -0.5443353587062884 -0.5443353587062884
N 1.1527670808243076 -0.6994940878279576 -0.6994940878279584 -0.6994940878279579 -0.6994940878279584 -0.6994940878279576 -0.699494087827958 -0.6994940878279581 -0.6994940878279584 -1.393326904342086 -2.8979372487117727 -1.3933269043420857 -1.3933269043420857 -1.3933269043420857 -3.265708867793059 2.4794590149041085 -0.6994940878279581 -1.21086825795987 -0.6994940878279579 -0.6994940878279584 -2.8979372487117727 -0.6994940878279584 -0.6994940878279584 2.697061082067472 -1.643861724220493 -0.5443353587062884 -1.643861724220493 -0.5443353587062884 -1.643861724220493 -1.9316579975517447 -1.2381681752204152 -0.5443353587062884 -1.9316579975517443 -0.7959545721160391 -0.5443353587062881 -0.5443353587062881 -1.643861724220493 -0.8070161289526511 -3.184665638309838 -1.2381681752204152 -1.4614487973319055 -1.643861724220493 -0.5443353587062884 -0.6622707985388409 -0.5443353587062884 -0.5443353587062884
P 1.396342144012254 -1.5798135587824051 -1.5798135587824058 -1.5798135587824054 -1.5798135587824058 -1.5798135587824051 -1.5798135587824054 -1.5798135587824054 -1.5798135587824058 -2.2736463752965332 -3.7782567196662202 -2.2736463752965332 -2.2736463752965332 -2.273646375296533 -4.146028338747506 2.7526789327762833 -1.5798135587824054 -2.091187728914317 -1.5798135587824054 -1.5798135587824058 -3.77825671966622 -1.5798135587824058 -1.5798135587824058 0.6119124243753169 -2.6625013386289553 -1.5629749731147509 -2.6625013386289553 -1.5629749731147509 -2.6625013386289553 -2.9502976119602073 -2.256807789628878 -1.5629749731147509 -2.950297611960207 2.390808912470063 -1.5629749731147509 -1.5629749731147509 -2.6625013386289553 2.0294441146674114 -4.203305252718301 -2.256807789628878 -2.4800884117403683 -2.6625013386289553 -1.5629749731147509 -1.6809104129473034 -1.5629749731147509 -1.5629749731147509
R -1.796827591802257 0.8589979720408573 -2.2721389385193373 0.858997972040857 -2.2721389385193373 0.8589979720408573 0.5857670181272506 -2.2721389385193365 -2.2721389385193373 0.6084784083294354 -4.470582099403152 -2.9659717550334648 -2.9659717550334648 0.8891281029950603 -4.838353718484438 -2.8323424431922173 1.2498000608389472 1.071586749377276 0.858997972040857 -2.2721389385193373 -4.470582099403152 -2.2721389385193373 -2.2721389385193373 3.0565058940545624 -3.185783188000735 -2.08625682248653 -3.185783188000735 -2.08625682248653 -3.185783188000735 -3.4735794613319864 -2.7800896390006566 -2.08625682248653 -3.473579461331986 -2.337876035896281 -2.0862568224865297 -2.0862568224865297 -3.1857831880007343 -2.348937592732893 -4.72658710209008 -2.780089639000657 -3.0033702611121473 -3.185783188000735 -2.08625682248653 -2.204192262319083 -2.08625682248653 -2.08625682248653
S 3.049964314129273 -2.1672846323148782 -2.1672846323148787 -2.1672846323148782 -2.1672846323148787 -2.1672846323148782 -2.1672846323148782 -2.1672846323148787 -2.1672846323148787 -2.861117448829006 -4.365727793198693 -2.861117448829006 -2.861117448829006 -2.861117448829006 -4.733499412279979 -2.727488136987759 -2.1672846323148787 -2.6786588024467903 -2.1672846323148782 -2.1672846323148787 -4.365727793198693 -2.1672846323148787 -2.1672846323148787 -1.6978427856170786 -3.4425707268259416 -2.343044361311737 -3.4425707268259416 -2.343044361311737 -3.4425707268259416 -3.730367000157193 -3.036877177825864 -2.343044361311737 1.4566695827011407 -0.05053384504234097 1.39611224609321 1.39611224609321 1.4501252694056277 -2.6057251315580996 -4.983374640915287 -3.036877177825864 1.2136215579253256 -3.4425707268259416 -2.343044361311737 -0.0392237472190121 -2.343044361311737 -2.343044361311737
SH 2.638326834371298 -0.6030696064024614 -0.6030696064024623 -0.6030696064024617 -0.6030696064024623 -0.6030696064024614 -0.6030696064024619 -0.6030696064024619 -0.6030696064024623 -1.2969024229165895 -2.8015127672862765 -1.2969024229165895 -1.2969024229165895 -1.2969024229165895 -3.1692843863675626 -1.1632731110753423 -0.6030696064024619 -1.1144437765343738 -0.6030696064024617 -0.6030696064024623 -2.8015127672862765 -0.6030696064024623 -0.6030696064024623 1.1655326850717898 -1.7862548490946808 -0.6867284835804761 -1.7862548490946808 -0.6867284835804761 -1.7862548490946808 -2.0740511224259324 -1.380561300094603 -0.6867284835804761 -2.0740511224259324 -0.9383476969902271 -0.6867284835804759 -0.6867284835804759 -1.7862548490946806 2.5725297455314453 -3.327058763184026 -1.380561300094603 -1.6038419222060933 -1.7862548490946808 -0.6867284835804761 -0.8046639234130286 -0.6867284835804761 -0.6867284835804761
T 1.6621158576203428 -1.3140398451743163 -1.314039845174317 -1.3140398451743165 -1.314039845174317 -1.3140398451743163 -1.3140398451743165 -1.3140398451743165 -1.314039845174317 -2.0078726616884444 -3.5124830060581314 -2.0078726616884444 -2.0078726616884444 -2.007872661688444 -3.880254625139417 2.5995360080154826 -1.3140398451743165 -1.8254140153062286 -1.3140398451743165 -1.314039845174317 -3.5124830060581314 -1.314039845174317 -1.314039845174317 0.8945104442922972 -2.3799033187119747 -1.2803769531977702 -2.379903318711975 -1.2803769531977702 -2.3799033187119747 -2.6676995920432267 -1.9742097697118974 -1.2803769531977702 -2.6676995920432267 -1.5319961666075215 -1.2803769531977702 -1.2803769531977702 -2.3799033187119747 2.3120421345843916 -3.9207072328013206 -1.9742097697118977 -2.1974903918233877 -2.379903318711975 -1.2803769531977702 1.9471960827712436 -1.2803769531977702 -1.2803769531977702
TH 2.7817746016041114 -0.8768379638133316 -0.8768379638133322 -0.8768379638133317 -0.8768379638133322 -0.8768379638133316 -0.8768379638133317 -0.8768379638133318 -0.8768379638133322 -1.5706707803274595 -3.0752811246971468 -1.5706707803274595 -1.5706707803274595 -1.5706707803274595 -3.4430527437784324 -1.4370414684862123 -0.8768379638133318 -1.3882121339452438 -0.8768379638133317 -0.8768379638133322 -3.0752811246971463 -0.8768379638133322 -0.8768379638133322 0.5263381756185735 -2.0521773734538638 -0.9526510079396591 -2.0521773734538633 -0.9526510079396591 -2.0521773734538638 -2.3399736467851153 -1.6464838244537858 -0.9526510079396591 -2.3399736467851153 -1.2042702213494099 -0.9526510079396588 -0.9526510079396588 -2.0521773734538633 1.9158051323741723 -3.5929812875432092 -1.646483824453786 -1.8697644465652763 -2.0521773734538633 -0.9526510079396591 2.274922028029355 -0.9526510079396591 -0.9526510079396591
V 2.2872799711279757 -0.22486428444372208 -0.22486428444372306 -0.22486428444372222 -0.22486428444372306 -0.22486428444372208 -0.22486428444372236 -0.2248642844437225 -0.22486428444372306 -0.9186971009578503 -2.4233074453275374 -0.9186971009578502 -0.9186971009578502 -0.9186971009578502 -2.791079064408823 -0.7850677891166028 -0.2248642844437225 -0.7362384545756344 -0.22486428444372222 -0.22486428444372306 -2.423307445327537 -0.22486428444372306 -0.22486428444372306 2.374214682997277 -1.2374559380886263 -0.13792957257442157 -1.2374559380886263 -0.13792957257442157 -1.2374559380886263 -1.5252522114198779 -0.8317623890885485 -0.13792957257442157 -1.5252522114198777 -0.3895487859841725 -0.13792957257442157 -0.13792957257442157 -1.237455938088626 -0.4006103428207844 -2.7782598521779716 -0.8317623890885485 -1.0550430112000386 -1.2374559380886263 -0.13792957257442157 -0.2558650124069742 -0.13792957257442157 -0.13792957257442157
W -1.4047547919099905 -2.0499563676046484 -2.049956367604649 1.2955521081969181 -2.049956367604649 -2.0499563676046484 1.0195490006092833 1.6892002398002979 -2.049956367604649 1.0481825902415396 -4.248399528488464 -2.7437891841187767 -2.7437891841187767 -2.7437891841187763 -4.61617114756975 -0.18840381835225203 -2.049956367604649 0.7841779380650058 1.2955521081969181 -2.049956367604649 -4.248399528488464 -2.049956367604649 -2.049956367604649 3.023057484878086 -2.8491499929583637 -1.749623627444159 -2.8491499929583637 -1.749623627444159 -2.8491499929583637 -3.1369462662896153 -2.443456443958286 -1.749623627444159 -3.1369462662896153 -2.00124284085391 -1.749623627444159 -1.749623627444159 -2.8491499929583637 -2.0123043976905217 -4.389953907047709 -2.443456443958286 -2.6667370660697762 -2.8491499929583637 -1.749623627444159 -1.8675590672767117 -1.749623627444159 -1.749623627444159
Y 2.2872799711279757 -0.22486428444372208 -0.22486428444372306 -0.22486428444372222 -0.22486428444372306 -0.22486428444372208 -0.22486428444372236 -0.2248642844437225 -0.22486428444372306 -0.9186971009578503 -2.4233074453275374 -0.9186971009578502 -0.9186971009578502 -0.9186971009578502 -2.791079064408823 -0.7850677891166028 -0.2248642844437225 -0.7362384545756344 -0.22486428444372222 -0.22486428444372306 -2.423307445327537 -0.22486428444372306 -0.22486428444372306 2.374214682997277 -1.2374559380886263 -0.13792957257442157 -1.2374559380886263 -0.13792957257442157 -1.2374559380886263 -1.5252522114198779 -0.8317623890885485 -0.13792957257442157 -1.5252522114198777 -0.3895487859841725 -0.13792957257442157 -0.13792957257442157 -1.237455938088626 -0.4006103428207844 -2.7782598521779716 -0.8317623890885485 -1.0550430112000386 -1.2374559380886263 -0.13792957257442157 -0.2558650124069742 -0.13792957257442157 -0.13792957257442157
Z 2.2872799711279757 -0.22486428444372208 -0.22486428444372306 -0.22486428444372222 -0.22486428444372306 -0.22486428444372208 -0.22486428444372236 -0.2248642844437225 -0.22486428444372306 -0.9186971009578503 -2.4233074453275374 -0.9186971009578502 -0.9186971009578502 -0.9186971009578502 -2.791079064408823 -0.7850677891166028 -0.2248642844437225 -0.7362384545756344 -0.22486428444372222 -0.22486428444372306 -2.423307445327537 -0.22486428444372306 -0.22486428444372306 2.374214682997277 -1.2374559380886263 -0.13792957257442157 -1.2374559380886263 -0.13792957257442157 -1.2374559380886263 -1.5252522114198779 -0.8317623890885485 -0.13792957257442157 -1.5252522114198777 -0.3895487859841725 -0.13792957257442157 -0.13792957257442157 -1.237455938088626 -0.4006103428207844 -2.7782598521779716 -0.8317623890885485 -1.0550430112000386 -1.2374559380886263 -0.13792957257442157 -0.2558650124069742 -0.13792957257442157 -0.13792957257442157
