23 46
B -6.920496411400785 0.7240988426706552 0.7871023982316776 -6.358047844892416 -6.999220840141138 -5.934151435460257 -6.724077211489954 -5.954222834365724 1.4531332570489006 -5.723674055125478 -5.248532721294272 -6.173174531340826 -5.394469814039968 -4.64665683763677 -4.2361489968384385 -4.93136092193863 -4.014133405866127 -3.7066389424650015 -3.378168001710867 -3.103611725981854 -3.0114935239934226 -1.646656837636769 -0.31105380585232995 1.1509932207235658 -6.920496411400785 -7.534825696655686 -6.358047844892416 -6.999220840141138 -5.934151435460257 -6.724077211489954 -5.954222834365724 -6.288333729352247 -5.723674055125478 -5.248532721294272 -6.173174531340826 -5.394469814039968 -4.64665683763677 -4.2361489968384385 -4.93136092193863 -4.014133405866127 -3.7066389424650015 -3.378168001710867 -3.103611725981854 -3.0114935239934226 -1.646656837636769 -0.31105380585232995
CH -4.344441578745929 1.0730847667795909 -4.958770864000829 -3.781993012237559 -4.423166007486281 -3.358096602805401 -4.148022378835097 -3.378168001710867 -3.71227889669739 -3.1476192224706208 -2.6724778886394147 -3.5971196986859697 -2.8184149813851107 -2.0706020049819123 -1.6600941641835825 -2.3553060892837725 -1.4380785732112695 -1.1305841098101443 -0.8021131690560104 -0.5275568933269967 -0.4354386913385651 0.9293979950180881 2.2650010268025267 1.0730847667795909 -4.344441578745929 -4.958770864000829 -3.781993012237559 -4.423166007486281 -3.358096602805401 -4.148022378835097 -3.378168001710867 -3.71227889669739 -3.1476192224706208 -2.6724778886394147 -3.5971196986859697 -2.8184149813851107 -2.0706020049819123 -1.6600941641835825 -2.3553060892837725 -1.4380785732112695 -1.1305841098101443 -0.8021131690560104 -0.5275568933269967 -0.4354386913385651 0.9293979950180881 2.2650010268025267
D -7.324321421927478 1.0300926582970014 -0.2107302526191773 -6.7618728554191065 -7.40304585066783 -6.337976445986949 -7.127902222016646 -6.358047844892416 -6.692158739878939 -6.12749906565217 -5.652357731820963 -6.576999541867518 -1.6283698231243464 -5.050481848163461 -4.639974007365131 -5.335185932465321 -4.4179584163928185 -4.110463952991693 -3.781993012237559 -3.5074367365085455 -3.415318534520114 -2.050481848163461 -0.7148788163790217 1.1547193128107465 -7.324321421927478 -7.938650707182377 -6.7618728554191065 -7.40304585066783 -6.337976445986949 -7.127902222016646 -6.358047844892416 -6.692158739878939 -6.12749906565217 -5.652357731820963 -6.576999541867518 -5.798294824566659 -5.050481848163461 -4.639974007365131 -5.335185932465321 -4.4179584163928185 -4.110463952991693 -3.781993012237559 -3.5074367365085455 -3.415318534520114 -2.050481848163461 -0.7148788163790217
DH -1.2773273828873917 0.09580484327967433 -1.8916566681422908 -0.7148788163790217 -1.356051811627744 -0.29098240694686334 -1.0809081829765599 -0.31105380585232995 -0.6451647008388524 -0.08050502661208386 0.39463630721912263 -0.530005502827432 0.24869921447342663 0.996512190876625 1.407020031674955 0.7118081065747648 1.6290356226472678 1.9365300860483927 2.2650010268025267 2.53955730253154 2.631675504519972 3.9965121908766252 5.332115222661065 0.09580484327967433 -1.2773273828873917 -1.8916566681422908 -0.7148788163790217 -1.356051811627744 -0.29098240694686334 -1.0809081829765599 -0.31105380585232995 -0.6451647008388524 -0.08050502661208386 0.39463630721912263 -0.530005502827432 0.24869921447342663 0.996512190876625 1.407020031674955 0.7118081065747648 1.6290356226472678 1.9365300860483927 2.2650010268025267 2.53955730253154 2.631675504519972 3.9965121908766252 5.332115222661065
F -6.68994763216054 0.6174651876465508 0.6900765194434191 -6.12749906565217 -6.768672060900893 -5.703602656220012 -6.493528432249708 -5.723674055125478 2.1270903927962834 -5.493125275885232 -5.017983942054026 -5.9426257521005805 -5.1639210347997215 -4.416108058396523 -4.005600217598193 -4.700812142698384 -3.783584626625881 -3.476090163224755 -3.1476192224706208 -2.873062946741608 -2.7809447447531763 -1.4161080583965229 -0.08050502661208386 1.148342823670781 -6.68994763216054 -7.3042769174154385 -6.12749906565217 -6.768672060900893 -5.703602656220012 -6.493528432249708 -5.723674055125478 -6.0577849501120005 -5.493125275885232 -5.017983942054026 -5.9426257521005805 -5.1639210347997215 -4.416108058396523 -4.005600217598193 -4.700812142698384 -3.783584626625881 -3.476090163224755 -3.1476192224706208 -2.873062946741608 -2.7809447447531763 -1.4161080583965229 -0.08050502661208386
G -5.897634498973691 0.22503199486263692 1.863075647118335 -5.335185932465321 -5.976358927714044 -4.911289523033163 -5.701215299062859 -4.93136092193863 1.7789223024333018 -4.700812142698384 -4.225670808867177 -5.150312618913731 -0.7866454008917166 -3.6237949252096744 -3.2132870844113444 -3.908499009511534 -2.9912714934390316 -2.683777030037907 -2.3553060892837725 -2.080749813554759 -1.9886316115663274 -0.6237949252096742 0.7118081065747648 1.1351369142090275 -5.897634498973691 -6.51196378422859 -5.335185932465321 -5.976358927714044 -4.911289523033163 -5.701215299062859 -4.93136092193863 -5.265471816925152 -4.700812142698384 -4.225670808867177 -5.150312618913731 -4.371607901612872 -3.6237949252096744 -3.2132870844113444 -3.908499009511534 -2.9912714934390316 -2.683777030037907 -2.3553060892837725 -2.080749813554759 -1.9886316115663274 -0.6237949252096742 0.7118081065747648
HH -6.214806298329334 1.0088253415958532 -6.829135583584232 -5.652357731820963 -6.293530727069686 -5.228461322388805 -6.0183870984185015 -5.248532721294272 -5.582643616280794 -5.017983942054026 -4.542842608222819 -5.467484418269374 2.118575221089089 -3.9409667245653166 -3.5304588837669866 -4.225670808867177 -3.308443292794674 -3.000948829393549 -2.6724778886394147 -2.3979216129104013 -2.30580341092197 -0.9409667245653165 0.39463630721912263 1.1413195025320433 -6.214806298329334 -6.829135583584232 -5.652357731820963 -6.293530727069686 -5.228461322388805 -6.0183870984185015 -5.248532721294272 -5.582643616280794 -5.017983942054026 -4.542842608222819 -5.467484418269374 -4.6887797009685155 -3.9409667245653166 -3.5304588837669866 -4.225670808867177 -3.308443292794674 -3.000948829393549 -2.6724778886394147 -2.3979216129104013 -2.30580341092197 -0.9409667245653165 0.39463630721912263
JH -4.980406982901188 1.1069707609320008 -5.594736268156088 -4.4179584163928185 -5.05913141164154 -3.9940620069606596 -4.783987782990357 -4.014133405866127 -4.348244300852649 -3.783584626625881 -3.308443292794674 -4.233085102841229 -3.4543803855403694 -2.7065674091371714 -2.2960595683388414 -2.9912714934390316 -2.0740439773665287 -1.766549513965404 -1.4380785732112695 -1.163522297482256 -1.0714040954938246 0.2934325908628288 1.6290356226472678 1.1069707609320008 -4.980406982901188 -5.594736268156088 -4.4179584163928185 -5.05913141164154 -3.9940620069606596 -4.783987782990357 -4.014133405866127 -4.348244300852649 -3.783584626625881 -3.308443292794674 -4.233085102841229 -3.4543803855403694 -2.7065674091371714 -2.2960595683388414 -2.9912714934390316 -2.0740439773665287 -1.766549513965404 -1.4380785732112695 -1.163522297482256 -1.0714040954938246 0.2934325908628288 1.6290356226472678
K -7.886769988435847 0.735712761358452 0.4087938100792953 -7.324321421927478 -7.9654944171762 -6.90042501249532 -7.6903507885250155 -6.920496411400785 0.9102996202883794 -6.68994763216054 -6.214806298329334 -7.139448108375889 1.7214056502788424 -5.612930414671831 -5.202422573873501 -5.897634498973691 -4.980406982901188 -4.672912519500063 -4.344441578745929 -4.069885303016916 -3.9777671010284843 -2.6129304146718306 -1.2773273828873917 0.9933639704953425 -7.886769988435847 -8.501099273690746 -7.324321421927478 0.8224081422152315 -6.90042501249532 -7.6903507885250155 -6.920496411400785 -7.254607306387308 -6.68994763216054 -6.214806298329334 -7.139448108375889 -6.3607433910750295 -5.612930414671831 -5.202422573873501 -5.897634498973691 -4.980406982901188 -4.672912519500063 -4.344441578745929 -4.069885303016916 -3.9777671010284843 -2.6129304146718306 -1.2773273828873917
L -7.254607306387308 1.1541488295104796 -7.868936591642207 -6.692158739878939 -7.333331735127661 -6.26826233044678 -7.058188106476477 -6.288333729352247 -6.622444624338769 -6.0577849501120005 -5.582643616280794 -6.507285426327349 -5.72858070902649 -4.980767732623291 -4.5702598918249615 -5.265471816925152 -4.348244300852649 -4.040749837451524 -3.71227889669739 -3.437722620968376 -3.345604418979945 -1.9807677326232913 -0.6451647008388524 0.05634008858317729 0.9102996202883794 -7.868936591642207 -6.692158739878939 0.40813525127348665 -6.26826233044678 0.9970943290247133 1.4531332570489006 -6.622444624338769 2.1270903927962834 -5.582643616280794 -6.507285426327349 -5.72858070902649 -4.980767732623291 -4.5702598918249615 1.7789223024333018 -4.348244300852649 -4.040749837451524 -3.71227889669739 -3.437722620968376 -3.345604418979945 -1.9807677326232913 -0.6451647008388524
M -6.90042501249532 1.1507791187843848 -7.514754297750218 -6.337976445986949 -6.979149441235672 -5.914080036554791 -6.704005812584487 -5.934151435460257 -6.26826233044678 -5.703602656220012 -5.228461322388805 -6.15310313243536 -5.374398415134501 -4.626585438731302 -4.216077597932973 -4.911289523033163 -3.9940620069606596 -3.6865675435595344 -3.358096602805401 -3.083540327076387 -2.9914221250879556 -1.6265854387313023 -0.29098240694686334 1.0918267251249651 -6.90042501249532 -7.514754297750218 -6.337976445986949 -0.6041100098887466 -5.914080036554791 -6.704005812584487 -5.934151435460257 -6.26826233044678 -5.703602656220012 -5.228461322388805 -6.15310313243536 -5.374398415134501 -4.626585438731302 -4.216077597932973 -4.911289523033163 -3.9940620069606596 -3.6865675435595344 -3.358096602805401 -3.083540327076387 -2.9914221250879556 -1.6265854387313023 -0.29098240694686334
N -5.612930414671831 1.1282716880273187 -6.22725969992673 -5.050481848163461 -5.691654843412183 -4.626585438731302 -5.416511214760999 -4.64665683763677 -4.980767732623291 -4.416108058396523 -3.9409667245653166 -4.865608534611871 -4.086903817311012 -3.3390908409078137 -2.928583000109484 -3.6237949252096744 -2.7065674091371714 -2.3990729457360467 -2.0706020049819123 -1.7960457292528986 -1.7039275272644672 -0.33909084090781366 0.996512190876625 0.9241030253097783 -5.612930414671831 -6.22725969992673 -5.050481848163461 1.0897048701124767 -4.626585438731302 -5.416511214760999 -4.64665683763677 -4.980767732623291 -4.416108058396523 -3.9409667245653166 -4.865608534611871 -4.086903817311012 -3.3390908409078137 -2.928583000109484 -3.6237949252096744 -2.7065674091371714 -2.3990729457360467 -2.0706020049819123 -1.7960457292528986 -1.7039275272644672 -0.33909084090781366 0.996512190876625
P -7.6903507885250155 0.4608585671774088 1.7959822652252837 -7.127902222016646 -7.769075217265368 -6.704005812584487 -7.493931588614184 -6.724077211489954 0.9970943290247133 -6.493528432249708 -6.0183870984185015 -6.943028908465056 -6.164324191164198 -5.416511214760999 -5.0060033739626695 -5.701215299062859 -4.783987782990357 -4.476493319589231 -4.148022378835097 -3.8734661031060837 -3.781347901117652 -2.4165112147609986 -1.0809081829765599 0.9892988828918694 -7.6903507885250155 -8.304680073779915 -7.127902222016646 0.8456346268498403 -6.704005812584487 -7.493931588614184 -6.724077211489954 -7.058188106476477 -6.493528432249708 -6.0183870984185015 -6.943028908465056 -6.164324191164198 -5.416511214760999 -5.0060033739626695 -5.701215299062859 -4.783987782990357 -4.476493319589231 -4.148022378835097 -3.8734661031060837 -3.781347901117652 -2.4165112147609986 -1.0809081829765599
R -8.501099273690746 1.1611296548963097 -9.115428558945647 -7.938650707182377 -8.5798237024311 -7.514754297750218 -8.304680073779915 -7.534825696655686 -7.868936591642207 -7.3042769174154385 -6.829135583584232 -7.753777393630787 -6.975072676329929 -6.22725969992673 -5.8167518591284 -6.51196378422859 -5.594736268156088 -5.287241804754963 -4.958770864000829 -4.684214588271814 -4.592096386283384 -3.2272596999267305 -1.8916566681422908 -0.02310624781548148 0.4087938100792953 -9.115428558945647 -0.2107302526191773 -8.5798237024311 -7.514754297750218 1.7959822652252837 0.7871023982316776 -7.868936591642207 0.6900765194434191 -6.829135583584232 1.6953712517446498 -6.975072676329929 -6.22725969992673 -5.8167518591284 1.863075647118335 -5.594736268156088 0.07031019986312163 -4.958770864000829 -4.684214588271814 1.6173569793455667 -3.2272596999267305 -1.8916566681422908
S 0.8224081422152315 0.19945188015269236 -8.5798237024311 -7.40304585066783 -8.044218845916552 -0.6041100098887466 0.8456346268498403 -6.999220840141138 0.40813525127348665 -6.768672060900893 -6.293530727069686 2.2433069101699163 0.8273187208795201 1.0897048701124767 -5.281147002613853 -5.976358927714044 -5.05913141164154 -4.7516369482404155 -4.423166007486281 -4.148609731757268 -4.056491529768836 -2.691654843412183 -1.356051811627744 1.158847097213887 -7.9654944171762 -8.5798237024311 -7.40304585066783 -8.044218845916552 -6.979149441235672 -7.769075217265368 -6.999220840141138 -7.333331735127661 -6.768672060900893 -6.293530727069686 -7.21817253711624 -6.439467819815381 -5.691654843412183 -5.281147002613853 -5.976358927714044 -5.05913141164154 -4.7516369482404155 -4.423166007486281 -4.148609731757268 -4.056491529768836 -2.691654843412183 -1.356051811627744
SH -4.672912519500063 0.9481472201105886 0.07031019986312163 -4.110463952991693 -4.7516369482404155 -3.6865675435595344 -4.476493319589231 -3.7066389424650015 -4.040749837451524 -3.476090163224755 -3.000948829393549 -3.9255906394401032 -3.146885922139245 -2.3990729457360467 -1.9885651049377164 -2.683777030037907 -1.766549513965404 -1.459055050564279 -1.1305841098101443 -0.8560278340811311 -0.7639096320926996 0.6009270542639538 1.9365300860483927 1.0925371294457635 -4.672912519500063 -5.287241804754963 -4.110463952991693 -4.7516369482404155 -3.6865675435595344 -4.476493319589231 -3.7066389424650015 -4.040749837451524 -3.476090163224755 -3.000948829393549 -3.9255906394401032 -3.146885922139245 -2.3990729457360467 -1.9885651049377164 -2.683777030037907 -1.766549513965404 -1.459055050564279 -1.1305841098101443 -0.8560278340811311 -0.7639096320926996 0.6009270542639538 1.9365300860483927
T -7.139448108375889 0.6156595963484797 1.6953712517446498 -6.576999541867518 -7.21817253711624 -6.15310313243536 -6.943028908465056 -6.173174531340826 -6.507285426327349 -5.9426257521005805 -5.467484418269374 -6.392126228315928 0.1939334110425348 -4.865608534611871 -4.455100693813542 -5.150312618913731 -4.233085102841229 -3.9255906394401032 -3.5971196986859697 -3.322563422956956 -3.2304452209685244 -1.865608534611871 -0.530005502827432 0.6574303469059503 -7.139448108375889 -7.753777393630787 -6.576999541867518 2.2433069101699163 -6.15310313243536 -6.943028908465056 -6.173174531340826 -6.507285426327349 -5.9426257521005805 -5.467484418269374 -6.392126228315928 -5.613421511015069 -4.865608534611871 -4.455100693813542 -5.150312618913731 -4.233085102841229 -3.9255906394401032 -3.5971196986859697 -3.322563422956956 -3.2304452209685244 -1.865608534611871 -0.530005502827432
TH -3.9777671010284843 0.5163805260999482 1.6173569793455667 -3.415318534520114 -4.056491529768836 -2.9914221250879556 -3.781347901117652 -3.0114935239934226 -3.345604418979945 -2.7809447447531763 -2.30580341092197 -3.2304452209685244 -0.12981240878030317 -1.7039275272644672 -1.2934196864661371 -1.9886316115663274 -1.0714040954938246 -0.7639096320926996 -0.4354386913385651 -0.16088241560955194 -0.06876421362112026 1.2960724727355328 2.631675504519972 1.044980584201992 -3.9777671010284843 -4.592096386283384 -3.415318534520114 -4.056491529768836 -2.9914221250879556 -3.781347901117652 -3.0114935239934226 -3.345604418979945 -2.7809447447531763 -2.30580341092197 -3.2304452209685244 -2.4517405036676654 -1.7039275272644672 -1.2934196864661371 -1.9886316115663274 -1.0714040954938246 -0.7639096320926996 -0.4354386913385651 -0.16088241560955194 -0.06876421362112026 1.2960724727355328 2.631675504519972
V -5.202422573873501 1.1155680981011045 -5.8167518591284 -4.639974007365131 -5.281147002613853 -4.216077597932973 -5.0060033739626695 -4.2361489968384385 -4.5702598918249615 -4.005600217598193 -3.5304588837669866 -4.455100693813542 -3.676395976512682 -2.928583000109484 -2.5180751593111537 -3.2132870844113444 -2.2960595683388414 -1.9885651049377164 -1.6600941641835825 -1.3855378884545688 -1.2934196864661371 0.07141699989051613 1.407020031674955 1.1155680981011045 -5.202422573873501 -5.8167518591284 -4.639974007365131 -5.281147002613853 -4.216077597932973 -5.0060033739626695 -4.2361489968384385 -4.5702598918249615 -4.005600217598193 -3.5304588837669866 -4.455100693813542 -3.676395976512682 -2.928583000109484 -2.5180751593111537 -3.2132870844113444 -2.2960595683388414 -1.9885651049377164 -1.6600941641835825 -1.3855378884545688 -1.2934196864661371 0.07141699989051613 1.407020031674955
W -6.3607433910750295 1.143731374215298 -6.975072676329929 -5.798294824566659 -6.439467819815381 -5.374398415134501 -6.164324191164198 -5.394469814039968 -5.72858070902649 -5.1639210347997215 -4.6887797009685155 -5.613421511015069 -4.834716793714211 -4.086903817311012 -3.676395976512682 -4.371607901612872 -3.4543803855403694 -3.146885922139245 -2.8184149813851107 -2.5438587056560973 -2.4517405036676654 -1.0869038173110124 0.24869921447342663 0.29963947834665394 1.7214056502788424 -6.975072676329929 -1.6283698231243464 0.8273187208795201 -5.374398415134501 -6.164324191164198 -5.394469814039968 -5.72858070902649 -5.1639210347997215 2.118575221089089 0.1939334110425348 -4.834716793714211 -4.086903817311012 -3.676395976512682 -0.7866454008917166 -3.4543803855403694 -3.146885922139245 -2.8184149813851107 -2.5438587056560973 -0.12981240878030317 -1.0869038173110124 0.24869921447342663
Y -4.069885303016916 1.052781190819413 -4.684214588271814 -3.5074367365085455 -4.148609731757268 -3.083540327076387 -3.8734661031060837 -3.103611725981854 -3.437722620968376 -2.873062946741608 -2.3979216129104013 -3.322563422956956 -2.5438587056560973 -1.7960457292528986 -1.3855378884545688 -2.080749813554759 -1.163522297482256 -0.8560278340811311 -0.5275568933269967 -0.2530006175979833 -0.16088241560955194 1.2039542707471016 2.53955730253154 1.052781190819413 -4.069885303016916 -4.684214588271814 -3.5074367365085455 -4.148609731757268 -3.083540327076387 -3.8734661031060837 -3.103611725981854 -3.437722620968376 -2.873062946741608 -2.3979216129104013 -3.322563422956956 -2.5438587056560973 -1.7960457292528986 -1.3855378884545688 -2.080749813554759 -1.163522297482256 -0.8560278340811311 -0.5275568933269967 -0.2530006175979833 -0.16088241560955194 1.2039542707471016 2.53955730253154
Z -2.6129304146718306 0.8305911393866335 -3.2272596999267305 -2.050481848163461 -2.691654843412183 -1.6265854387313023 -2.4165112147609986 -1.646656837636769 -1.9807677326232913 -1.4161080583965229 -0.9409667245653165 -1.865608534611871 -1.0869038173110124 -0.33909084090781366 0.07141699989051613 -0.6237949252096742 0.2934325908628288 0.6009270542639538 0.9293979950180881 1.2039542707471016 1.2960724727355328 2.6609091590921863 3.9965121908766252 0.8305911393866335 -2.6129304146718306 -3.2272596999267305 -2.050481848163461 -2.691654843412183 -1.6265854387313023 -2.4165112147609986 -1.646656837636769 -1.9807677326232913 -1.4161080583965229 -0.9409667245653165 -1.865608534611871 -1.0869038173110124 -0.33909084090781366 0.07141699989051613 -0.6237949252096742 0.2934325908628288 0.6009270542639538 0.9293979950180881 1.2039542707471016 1.2960724727355328 2.6609091590921863 3.9965121908766252
# 0.9933639704953425 -13.78436172587644 -0.02310624781548148 1.1547193128107465 1.158847097213887 1.0918267251249651 0.9892988828918694 1.1509932207235658 0.05634008858317729 1.148342823670781 1.1413195025320433 0.6574303469059503 0.29963947834665394 0.9241030253097783 1.1155680981011045 1.1351369142090275 1.1069707609320008 1.0925371294457635 1.0730847667795909 1.052781190819413 1.044980584201992 0.8305911393866335 0.09580484327967433 -13.78436172587644 0.735712761358452 1.1611296548963097 1.0300926582970014 0.19945188015269236 1.1507791187843848 0.4608585671774088 0.7240988426706552 1.1541488295104796 0.6174651876465508 1.0088253415958532 0.6156595963484797 1.143731374215298 1.1282716880273187 1.1155680981011045 0.22503199486263692 1.1069707609320008 0.9481472201105886 1.0730847667795909 1.052781190819413 0.5163805260999482 0.8305911393866335 0.09580484327967433
